digraph Tree {
node [shape=box, style="filled, rounded", color="black", fontname="helvetica"] ;
edge [fontname="helvetica"] ;
0 [label="adult_male <= 0.5\nentropy = 0.955\nsamples = 712\nvalue = [444, 268]", fillcolor="#f5cdb1"] ;
1 [label="class <= 1.5\nentropy = 0.868\nsamples = 280\nvalue = [81, 199]", fillcolor="#8ac5f0"] ;
0 -> 1 [labeldistance=2.5, labelangle=45, headlabel="True"] ;
2 [label="age <= 27.5\nentropy = 0.222\nsamples = 140\nvalue = [5, 135]", fillcolor="#40a1e6"] ;
1 -> 2 ;
3 [label="age <= 24.5\nentropy = 0.358\nsamples = 59\nvalue = [4, 55]", fillcolor="#47a4e7"] ;
2 -> 3 ;
4 [label="fare <= 13.396\nentropy = 0.232\nsamples = 53\nvalue = [2, 51]", fillcolor="#41a1e6"] ;
3 -> 4 ;
5 [label="age <= 22.5\nentropy = 0.811\nsamples = 4\nvalue = [1, 3]", fillcolor="#7bbeee"] ;
4 -> 5 ;
6 [label="entropy = 0.0\nsamples = 2\nvalue = [0, 2]", fillcolor="#399de5"] ;
5 -> 6 ;
7 [label="entropy = 1.0\nsamples = 2\nvalue = [1, 1]", fillcolor="#ffffff"] ;
5 -> 7 ;
8 [label="age <= 2.5\nentropy = 0.144\nsamples = 49\nvalue = [1, 48]", fillcolor="#3d9fe6"] ;
4 -> 8 ;
9 [label="fare <= 95.275\nentropy = 0.544\nsamples = 8\nvalue = [1, 7]", fillcolor="#55abe9"] ;
8 -> 9 ;
10 [label="entropy = 0.0\nsamples = 6\nvalue = [0, 6]", fillcolor="#399de5"] ;
9 -> 10 ;
11 [label="age <= 1.46\nentropy = 1.0\nsamples = 2\nvalue = [1, 1]", fillcolor="#ffffff"] ;
9 -> 11 ;
12 [label="entropy = 0.0\nsamples = 1\nvalue = [0, 1]", fillcolor="#399de5"] ;
11 -> 12 ;
13 [label="entropy = 0.0\nsamples = 1\nvalue = [1, 0]", fillcolor="#e58139"] ;
11 -> 13 ;
14 [label="entropy = 0.0\nsamples = 41\nvalue = [0, 41]", fillcolor="#399de5"] ;
8 -> 14 ;
15 [label="fare <= 90.775\nentropy = 0.918\nsamples = 6\nvalue = [2, 4]", fillcolor="#9ccef2"] ;
3 -> 15 ;
16 [label="sibsp <= 0.5\nentropy = 0.722\nsamples = 5\nvalue = [1, 4]", fillcolor="#6ab6ec"] ;
15 -> 16 ;
17 [label="entropy = 0.0\nsamples = 2\nvalue = [0, 2]", fillcolor="#399de5"] ;
16 -> 17 ;
18 [label="fare <= 17.429\nentropy = 0.918\nsamples = 3\nvalue = [1, 2]", fillcolor="#9ccef2"] ;
16 -> 18 ;
19 [label="entropy = 0.0\nsamples = 1\nvalue = [0, 1]", fillcolor="#399de5"] ;
18 -> 19 ;
20 [label="parch <= 0.5\nentropy = 1.0\nsamples = 2\nvalue = [1, 1]", fillcolor="#ffffff"] ;
18 -> 20 ;
21 [label="entropy = 0.0\nsamples = 1\nvalue = [1, 0]", fillcolor="#e58139"] ;
20 -> 21 ;
22 [label="entropy = 0.0\nsamples = 1\nvalue = [0, 1]", fillcolor="#399de5"] ;
20 -> 22 ;
23 [label="entropy = 0.0\nsamples = 1\nvalue = [1, 0]", fillcolor="#e58139"] ;
15 -> 23 ;
24 [label="age <= 49.5\nentropy = 0.096\nsamples = 81\nvalue = [1, 80]", fillcolor="#3b9ee5"] ;
2 -> 24 ;
25 [label="entropy = 0.0\nsamples = 65\nvalue = [0, 65]", fillcolor="#399de5"] ;
24 -> 25 ;
26 [label="age <= 50.5\nentropy = 0.337\nsamples = 16\nvalue = [1, 15]", fillcolor="#46a4e7"] ;
24 -> 26 ;
27 [label="embarked <= 1.0\nentropy = 0.811\nsamples = 4\nvalue = [1, 3]", fillcolor="#7bbeee"] ;
26 -> 27 ;
28 [label="entropy = 0.0\nsamples = 1\nvalue = [1, 0]", fillcolor="#e58139"] ;
27 -> 28 ;
29 [label="entropy = 0.0\nsamples = 3\nvalue = [0, 3]", fillcolor="#399de5"] ;
27 -> 29 ;
30 [label="entropy = 0.0\nsamples = 12\nvalue = [0, 12]", fillcolor="#399de5"] ;
26 -> 30 ;
31 [label="fare <= 23.35\nentropy = 0.995\nsamples = 140\nvalue = [76, 64]", fillcolor="#fbebe0"] ;
1 -> 31 ;
32 [label="age <= 1.5\nentropy = 0.973\nsamples = 104\nvalue = [42, 62]", fillcolor="#bfdff7"] ;
31 -> 32 ;
33 [label="entropy = 0.0\nsamples = 6\nvalue = [0, 6]", fillcolor="#399de5"] ;
32 -> 33 ;
34 [label="fare <= 21.55\nentropy = 0.985\nsamples = 98\nvalue = [42, 56]", fillcolor="#cee6f8"] ;
32 -> 34 ;
35 [label="fare <= 20.8\nentropy = 0.992\nsamples = 94\nvalue = [42, 52]", fillcolor="#d9ecfa"] ;
34 -> 35 ;
36 [label="fare <= 15.373\nentropy = 0.982\nsamples = 90\nvalue = [38, 52]", fillcolor="#cae5f8"] ;
35 -> 36 ;
37 [label="fare <= 13.908\nentropy = 0.998\nsamples = 72\nvalue = [34, 38]", fillcolor="#eaf5fc"] ;
36 -> 37 ;
38 [label="fare <= 10.825\nentropy = 0.982\nsamples = 64\nvalue = [27, 37]", fillcolor="#c9e5f8"] ;
37 -> 38 ;
39 [label="fare <= 8.04\nentropy = 0.999\nsamples = 56\nvalue = [27, 29]", fillcolor="#f1f8fd"] ;
38 -> 39 ;
40 [label="alone <= 0.5\nentropy = 0.927\nsamples = 38\nvalue = [13, 25]", fillcolor="#a0d0f3"] ;
39 -> 40 ;
41 [label="sibsp <= 2.5\nentropy = 0.811\nsamples = 4\nvalue = [3, 1]", fillcolor="#eeab7b"] ;
40 -> 41 ;
42 [label="entropy = 0.0\nsamples = 3\nvalue = [3, 0]", fillcolor="#e58139"] ;
41 -> 42 ;
43 [label="entropy = 0.0\nsamples = 1\nvalue = [0, 1]", fillcolor="#399de5"] ;
41 -> 43 ;
44 [label="embark_town <= 0.5\nentropy = 0.874\nsamples = 34\nvalue = [10, 24]", fillcolor="#8bc6f0"] ;
40 -> 44 ;
45 [label="entropy = 0.0\nsamples = 4\nvalue = [0, 4]", fillcolor="#399de5"] ;
44 -> 45 ;
46 [label="fare <= 7.0\nentropy = 0.918\nsamples = 30\nvalue = [10, 20]", fillcolor="#9ccef2"] ;
44 -> 46 ;
47 [label="entropy = 0.0\nsamples = 1\nvalue = [1, 0]", fillcolor="#e58139"] ;
46 -> 47 ;
48 [label="age <= 14.5\nentropy = 0.894\nsamples = 29\nvalue = [9, 20]", fillcolor="#92c9f1"] ;
46 -> 48 ;
49 [label="entropy = 0.0\nsamples = 1\nvalue = [1, 0]", fillcolor="#e58139"] ;
48 -> 49 ;
50 [label="age <= 36.5\nentropy = 0.863\nsamples = 28\nvalue = [8, 20]", fillcolor="#88c4ef"] ;
48 -> 50 ;
51 [label="fare <= 7.59\nentropy = 0.826\nsamples = 27\nvalue = [7, 20]", fillcolor="#7ebfee"] ;
50 -> 51 ;
52 [label="entropy = 0.0\nsamples = 3\nvalue = [0, 3]", fillcolor="#399de5"] ;
51 -> 52 ;
53 [label="fare <= 7.64\nentropy = 0.871\nsamples = 24\nvalue = [7, 17]", fillcolor="#8bc5f0"] ;
51 -> 53 ;
54 [label="entropy = 0.0\nsamples = 1\nvalue = [1, 0]", fillcolor="#e58139"] ;
53 -> 54 ;
55 [label="fare <= 7.744\nentropy = 0.828\nsamples = 23\nvalue = [6, 17]", fillcolor="#7fc0ee"] ;
53 -> 55 ;
56 [label="entropy = 0.0\nsamples = 4\nvalue = [0, 4]", fillcolor="#399de5"] ;
55 -> 56 ;
57 [label="age <= 25.5\nentropy = 0.9\nsamples = 19\nvalue = [6, 13]", fillcolor="#94caf1"] ;
55 -> 57 ;
58 [label="age <= 22.5\nentropy = 0.985\nsamples = 7\nvalue = [4, 3]", fillcolor="#f8e0ce"] ;
57 -> 58 ;
59 [label="age <= 21.5\nentropy = 0.971\nsamples = 5\nvalue = [2, 3]", fillcolor="#bddef6"] ;
58 -> 59 ;
60 [label="age <= 16.5\nentropy = 0.918\nsamples = 3\nvalue = [2, 1]", fillcolor="#f2c09c"] ;
59 -> 60 ;
61 [label="entropy = 0.0\nsamples = 1\nvalue = [0, 1]", fillcolor="#399de5"] ;
60 -> 61 ;
62 [label="entropy = 0.0\nsamples = 2\nvalue = [2, 0]", fillcolor="#e58139"] ;
60 -> 62 ;
63 [label="entropy = 0.0\nsamples = 2\nvalue = [0, 2]", fillcolor="#399de5"] ;
59 -> 63 ;
64 [label="entropy = 0.0\nsamples = 2\nvalue = [2, 0]", fillcolor="#e58139"] ;
58 -> 64 ;
65 [label="age <= 27.5\nentropy = 0.65\nsamples = 12\nvalue = [2, 10]", fillcolor="#61b1ea"] ;
57 -> 65 ;
66 [label="entropy = 0.0\nsamples = 3\nvalue = [0, 3]", fillcolor="#399de5"] ;
65 -> 66 ;
67 [label="embark_town <= 1.5\nentropy = 0.764\nsamples = 9\nvalue = [2, 7]", fillcolor="#72b9ec"] ;
65 -> 67 ;
68 [label="fare <= 7.815\nentropy = 0.544\nsamples = 8\nvalue = [1, 7]", fillcolor="#55abe9"] ;
67 -> 68 ;
69 [label="entropy = 0.65\nsamples = 6\nvalue = [1, 5]", fillcolor="#61b1ea"] ;
68 -> 69 ;
70 [label="entropy = 0.0\nsamples = 2\nvalue = [0, 2]", fillcolor="#399de5"] ;
68 -> 70 ;
71 [label="entropy = 0.0\nsamples = 1\nvalue = [1, 0]", fillcolor="#e58139"] ;
67 -> 71 ;
72 [label="entropy = 0.0\nsamples = 1\nvalue = [1, 0]", fillcolor="#e58139"] ;
50 -> 72 ;
73 [label="age <= 19.0\nentropy = 0.764\nsamples = 18\nvalue = [14, 4]", fillcolor="#eca572"] ;
39 -> 73 ;
74 [label="age <= 10.0\nentropy = 0.918\nsamples = 3\nvalue = [1, 2]", fillcolor="#9ccef2"] ;
73 -> 74 ;
75 [label="entropy = 0.0\nsamples = 1\nvalue = [1, 0]", fillcolor="#e58139"] ;
74 -> 75 ;
76 [label="entropy = 0.0\nsamples = 2\nvalue = [0, 2]", fillcolor="#399de5"] ;
74 -> 76 ;
77 [label="age <= 30.5\nentropy = 0.567\nsamples = 15\nvalue = [13, 2]", fillcolor="#e99457"] ;
73 -> 77 ;
78 [label="entropy = 0.0\nsamples = 11\nvalue = [11, 0]", fillcolor="#e58139"] ;
77 -> 78 ;
79 [label="age <= 34.0\nentropy = 1.0\nsamples = 4\nvalue = [2, 2]", fillcolor="#ffffff"] ;
77 -> 79 ;
80 [label="entropy = 0.0\nsamples = 1\nvalue = [0, 1]", fillcolor="#399de5"] ;
79 -> 80 ;
81 [label="age <= 51.5\nentropy = 0.918\nsamples = 3\nvalue = [2, 1]", fillcolor="#f2c09c"] ;
79 -> 81 ;
82 [label="entropy = 0.0\nsamples = 2\nvalue = [2, 0]", fillcolor="#e58139"] ;
81 -> 82 ;
83 [label="entropy = 0.0\nsamples = 1\nvalue = [0, 1]", fillcolor="#399de5"] ;
81 -> 83 ;
84 [label="entropy = 0.0\nsamples = 8\nvalue = [0, 8]", fillcolor="#399de5"] ;
38 -> 84 ;
85 [label="fare <= 14.873\nentropy = 0.544\nsamples = 8\nvalue = [7, 1]", fillcolor="#e99355"] ;
37 -> 85 ;
86 [label="entropy = 0.0\nsamples = 6\nvalue = [6, 0]", fillcolor="#e58139"] ;
85 -> 86 ;
87 [label="age <= 28.5\nentropy = 1.0\nsamples = 2\nvalue = [1, 1]", fillcolor="#ffffff"] ;
85 -> 87 ;
88 [label="entropy = 0.0\nsamples = 1\nvalue = [1, 0]", fillcolor="#e58139"] ;
87 -> 88 ;
89 [label="entropy = 0.0\nsamples = 1\nvalue = [0, 1]", fillcolor="#399de5"] ;
87 -> 89 ;
90 [label="fare <= 16.0\nentropy = 0.764\nsamples = 18\nvalue = [4, 14]", fillcolor="#72b9ec"] ;
36 -> 90 ;
91 [label="entropy = 0.0\nsamples = 7\nvalue = [0, 7]", fillcolor="#399de5"] ;
90 -> 91 ;
92 [label="age <= 21.0\nentropy = 0.946\nsamples = 11\nvalue = [4, 7]", fillcolor="#aad5f4"] ;
90 -> 92 ;
93 [label="entropy = 0.0\nsamples = 2\nvalue = [2, 0]", fillcolor="#e58139"] ;
92 -> 93 ;
94 [label="parch <= 0.5\nentropy = 0.764\nsamples = 9\nvalue = [2, 7]", fillcolor="#72b9ec"] ;
92 -> 94 ;
95 [label="fare <= 17.7\nentropy = 0.971\nsamples = 5\nvalue = [2, 3]", fillcolor="#bddef6"] ;
94 -> 95 ;
96 [label="age <= 27.0\nentropy = 0.811\nsamples = 4\nvalue = [1, 3]", fillcolor="#7bbeee"] ;
95 -> 96 ;
97 [label="entropy = 0.0\nsamples = 1\nvalue = [1, 0]", fillcolor="#e58139"] ;
96 -> 97 ;
98 [label="entropy = 0.0\nsamples = 3\nvalue = [0, 3]", fillcolor="#399de5"] ;
96 -> 98 ;
99 [label="entropy = 0.0\nsamples = 1\nvalue = [1, 0]", fillcolor="#e58139"] ;
95 -> 99 ;
100 [label="entropy = 0.0\nsamples = 4\nvalue = [0, 4]", fillcolor="#399de5"] ;
94 -> 100 ;
101 [label="entropy = 0.0\nsamples = 4\nvalue = [4, 0]", fillcolor="#e58139"] ;
35 -> 101 ;
102 [label="entropy = 0.0\nsamples = 4\nvalue = [0, 4]", fillcolor="#399de5"] ;
34 -> 102 ;
103 [label="age <= 5.5\nentropy = 0.31\nsamples = 36\nvalue = [34, 2]", fillcolor="#e78845"] ;
31 -> 103 ;
104 [label="age <= 2.5\nentropy = 0.722\nsamples = 10\nvalue = [8, 2]", fillcolor="#eca06a"] ;
103 -> 104 ;
105 [label="entropy = 0.0\nsamples = 6\nvalue = [6, 0]", fillcolor="#e58139"] ;
104 -> 105 ;
106 [label="fare <= 31.331\nentropy = 1.0\nsamples = 4\nvalue = [2, 2]", fillcolor="#ffffff"] ;
104 -> 106 ;
107 [label="entropy = 0.0\nsamples = 2\nvalue = [2, 0]", fillcolor="#e58139"] ;
106 -> 107 ;
108 [label="entropy = 0.0\nsamples = 2\nvalue = [0, 2]", fillcolor="#399de5"] ;
106 -> 108 ;
109 [label="entropy = 0.0\nsamples = 26\nvalue = [26, 0]", fillcolor="#e58139"] ;
103 -> 109 ;
110 [label="fare <= 26.269\nentropy = 0.634\nsamples = 432\nvalue = [363, 69]", fillcolor="#ea995f"] ;
0 -> 110 [labeldistance=2.5, labelangle=-45, headlabel="False"] ;
111 [label="age <= 32.5\nentropy = 0.493\nsamples = 325\nvalue = [290, 35]", fillcolor="#e89051"] ;
110 -> 111 ;
112 [label="age <= 30.5\nentropy = 0.549\nsamples = 236\nvalue = [206, 30]", fillcolor="#e99356"] ;
111 -> 112 ;
113 [label="embarked <= 0.5\nentropy = 0.508\nsamples = 222\nvalue = [197, 25]", fillcolor="#e89152"] ;
112 -> 113 ;
114 [label="age <= 22.5\nentropy = 0.797\nsamples = 29\nvalue = [22, 7]", fillcolor="#eda978"] ;
113 -> 114 ;
115 [label="fare <= 5.619\nentropy = 0.971\nsamples = 5\nvalue = [2, 3]", fillcolor="#bddef6"] ;
114 -> 115 ;
116 [label="entropy = 0.0\nsamples = 1\nvalue = [1, 0]", fillcolor="#e58139"] ;
115 -> 116 ;
117 [label="age <= 21.0\nentropy = 0.811\nsamples = 4\nvalue = [1, 3]", fillcolor="#7bbeee"] ;
115 -> 117 ;
118 [label="entropy = 0.0\nsamples = 2\nvalue = [0, 2]", fillcolor="#399de5"] ;
117 -> 118 ;
119 [label="fare <= 7.227\nentropy = 1.0\nsamples = 2\nvalue = [1, 1]", fillcolor="#ffffff"] ;
117 -> 119 ;
120 [label="entropy = 0.0\nsamples = 1\nvalue = [0, 1]", fillcolor="#399de5"] ;
119 -> 120 ;
121 [label="entropy = 0.0\nsamples = 1\nvalue = [1, 0]", fillcolor="#e58139"] ;
119 -> 121 ;
122 [label="fare <= 7.227\nentropy = 0.65\nsamples = 24\nvalue = [20, 4]", fillcolor="#ea9a61"] ;
114 -> 122 ;
123 [label="entropy = 0.0\nsamples = 5\nvalue = [5, 0]", fillcolor="#e58139"] ;
122 -> 123 ;
124 [label="sibsp <= 0.5\nentropy = 0.742\nsamples = 19\nvalue = [15, 4]", fillcolor="#eca36e"] ;
122 -> 124 ;
125 [label="fare <= 16.919\nentropy = 0.811\nsamples = 16\nvalue = [12, 4]", fillcolor="#eeab7b"] ;
124 -> 125 ;
126 [label="fare <= 14.16\nentropy = 0.722\nsamples = 15\nvalue = [12, 3]", fillcolor="#eca06a"] ;
125 -> 126 ;
127 [label="fare <= 10.879\nentropy = 0.811\nsamples = 12\nvalue = [9, 3]", fillcolor="#eeab7b"] ;
126 -> 127 ;
128 [label="age <= 28.75\nentropy = 0.684\nsamples = 11\nvalue = [9, 2]", fillcolor="#eb9d65"] ;
127 -> 128 ;
129 [label="fare <= 7.562\nentropy = 0.503\nsamples = 9\nvalue = [8, 1]", fillcolor="#e89152"] ;
128 -> 129 ;
130 [label="age <= 28.25\nentropy = 0.592\nsamples = 7\nvalue = [6, 1]", fillcolor="#e9965a"] ;
129 -> 130 ;
131 [label="entropy = 0.65\nsamples = 6\nvalue = [5, 1]", fillcolor="#ea9a61"] ;
130 -> 131 ;
132 [label="entropy = 0.0\nsamples = 1\nvalue = [1, 0]", fillcolor="#e58139"] ;
130 -> 132 ;
133 [label="entropy = 0.0\nsamples = 2\nvalue = [2, 0]", fillcolor="#e58139"] ;
129 -> 133 ;
134 [label="age <= 29.5\nentropy = 1.0\nsamples = 2\nvalue = [1, 1]", fillcolor="#ffffff"] ;
128 -> 134 ;
135 [label="entropy = 0.0\nsamples = 1\nvalue = [0, 1]", fillcolor="#399de5"] ;
134 -> 135 ;
136 [label="entropy = 0.0\nsamples = 1\nvalue = [1, 0]", fillcolor="#e58139"] ;
134 -> 136 ;
137 [label="entropy = 0.0\nsamples = 1\nvalue = [0, 1]", fillcolor="#399de5"] ;
127 -> 137 ;
138 [label="entropy = 0.0\nsamples = 3\nvalue = [3, 0]", fillcolor="#e58139"] ;
126 -> 138 ;
139 [label="entropy = 0.0\nsamples = 1\nvalue = [0, 1]", fillcolor="#399de5"] ;
125 -> 139 ;
140 [label="entropy = 0.0\nsamples = 3\nvalue = [3, 0]", fillcolor="#e58139"] ;
124 -> 140 ;
141 [label="fare <= 7.798\nentropy = 0.447\nsamples = 193\nvalue = [175, 18]", fillcolor="#e88e4d"] ;
113 -> 141 ;
142 [label="age <= 20.5\nentropy = 0.616\nsamples = 59\nvalue = [50, 9]", fillcolor="#ea985d"] ;
141 -> 142 ;
143 [label="entropy = 0.0\nsamples = 10\nvalue = [10, 0]", fillcolor="#e58139"] ;
142 -> 143 ;
144 [label="fare <= 7.763\nentropy = 0.688\nsamples = 49\nvalue = [40, 9]", fillcolor="#eb9d66"] ;
142 -> 144 ;
145 [label="class <= 1.5\nentropy = 0.544\nsamples = 40\nvalue = [35, 5]", fillcolor="#e99355"] ;
144 -> 145 ;
146 [label="entropy = 0.0\nsamples = 7\nvalue = [7, 0]", fillcolor="#e58139"] ;
145 -> 146 ;
147 [label="fare <= 3.429\nentropy = 0.614\nsamples = 33\nvalue = [28, 5]", fillcolor="#ea985c"] ;
145 -> 147 ;
148 [label="entropy = 0.0\nsamples = 1\nvalue = [0, 1]", fillcolor="#399de5"] ;
147 -> 148 ;
149 [label="age <= 23.0\nentropy = 0.544\nsamples = 32\nvalue = [28, 4]", fillcolor="#e99355"] ;
147 -> 149 ;
150 [label="entropy = 0.0\nsamples = 7\nvalue = [7, 0]", fillcolor="#e58139"] ;
149 -> 150 ;
151 [label="age <= 24.5\nentropy = 0.634\nsamples = 25\nvalue = [21, 4]", fillcolor="#ea995f"] ;
149 -> 151 ;
152 [label="entropy = 0.0\nsamples = 1\nvalue = [0, 1]", fillcolor="#399de5"] ;
151 -> 152 ;
153 [label="age <= 28.5\nentropy = 0.544\nsamples = 24\nvalue = [21, 3]", fillcolor="#e99355"] ;
151 -> 153 ;
154 [label="fare <= 7.013\nentropy = 0.439\nsamples = 22\nvalue = [20, 2]", fillcolor="#e88e4d"] ;
153 -> 154 ;
155 [label="fare <= 6.962\nentropy = 0.918\nsamples = 3\nvalue = [2, 1]", fillcolor="#f2c09c"] ;
154 -> 155 ;
156 [label="entropy = 0.0\nsamples = 2\nvalue = [2, 0]", fillcolor="#e58139"] ;
155 -> 156 ;
157 [label="entropy = 0.0\nsamples = 1\nvalue = [0, 1]", fillcolor="#399de5"] ;
155 -> 157 ;
158 [label="fare <= 7.746\nentropy = 0.297\nsamples = 19\nvalue = [18, 1]", fillcolor="#e68844"] ;
154 -> 158 ;
159 [label="entropy = 0.0\nsamples = 10\nvalue = [10, 0]", fillcolor="#e58139"] ;
158 -> 159 ;
160 [label="alone <= 0.5\nentropy = 0.503\nsamples = 9\nvalue = [8, 1]", fillcolor="#e89152"] ;
158 -> 160 ;
161 [label="entropy = 0.0\nsamples = 1\nvalue = [1, 0]", fillcolor="#e58139"] ;
160 -> 161 ;
162 [label="entropy = 0.544\nsamples = 8\nvalue = [7, 1]", fillcolor="#e99355"] ;
160 -> 162 ;
163 [label="embarked <= 1.5\nentropy = 1.0\nsamples = 2\nvalue = [1, 1]", fillcolor="#ffffff"] ;
153 -> 163 ;
164 [label="entropy = 0.0\nsamples = 1\nvalue = [0, 1]", fillcolor="#399de5"] ;
163 -> 164 ;
165 [label="entropy = 0.0\nsamples = 1\nvalue = [1, 0]", fillcolor="#e58139"] ;
163 -> 165 ;
166 [label="sibsp <= 0.5\nentropy = 0.991\nsamples = 9\nvalue = [5, 4]", fillcolor="#fae6d7"] ;
144 -> 166 ;
167 [label="age <= 21.5\nentropy = 0.954\nsamples = 8\nvalue = [5, 3]", fillcolor="#f5cdb0"] ;
166 -> 167 ;
168 [label="entropy = 0.0\nsamples = 1\nvalue = [0, 1]", fillcolor="#399de5"] ;
167 -> 168 ;
169 [label="age <= 26.5\nentropy = 0.863\nsamples = 7\nvalue = [5, 2]", fillcolor="#efb388"] ;
167 -> 169 ;
170 [label="entropy = 0.0\nsamples = 3\nvalue = [3, 0]", fillcolor="#e58139"] ;
169 -> 170 ;
171 [label="age <= 27.5\nentropy = 1.0\nsamples = 4\nvalue = [2, 2]", fillcolor="#ffffff"] ;
169 -> 171 ;
172 [label="entropy = 0.0\nsamples = 1\nvalue = [0, 1]", fillcolor="#399de5"] ;
171 -> 172 ;
173 [label="fare <= 7.785\nentropy = 0.918\nsamples = 3\nvalue = [2, 1]", fillcolor="#f2c09c"] ;
171 -> 173 ;
174 [label="entropy = 1.0\nsamples = 2\nvalue = [1, 1]", fillcolor="#ffffff"] ;
173 -> 174 ;
175 [label="entropy = 0.0\nsamples = 1\nvalue = [1, 0]", fillcolor="#e58139"] ;
173 -> 175 ;
176 [label="entropy = 0.0\nsamples = 1\nvalue = [0, 1]", fillcolor="#399de5"] ;
166 -> 176 ;
177 [label="fare <= 7.91\nentropy = 0.355\nsamples = 134\nvalue = [125, 9]", fillcolor="#e78a47"] ;
141 -> 177 ;
178 [label="entropy = 0.0\nsamples = 29\nvalue = [29, 0]", fillcolor="#e58139"] ;
177 -> 178 ;
179 [label="fare <= 11.0\nentropy = 0.422\nsamples = 105\nvalue = [96, 9]", fillcolor="#e78d4c"] ;
177 -> 179 ;
180 [label="age <= 20.5\nentropy = 0.531\nsamples = 58\nvalue = [51, 7]", fillcolor="#e99254"] ;
179 -> 180 ;
181 [label="fare <= 8.175\nentropy = 0.764\nsamples = 18\nvalue = [14, 4]", fillcolor="#eca572"] ;
180 -> 181 ;
182 [label="fare <= 7.988\nentropy = 1.0\nsamples = 6\nvalue = [3, 3]", fillcolor="#ffffff"] ;
181 -> 182 ;
183 [label="entropy = 0.0\nsamples = 1\nvalue = [0, 1]", fillcolor="#399de5"] ;
182 -> 183 ;
184 [label="age <= 19.5\nentropy = 0.971\nsamples = 5\nvalue = [3, 2]", fillcolor="#f6d5bd"] ;
182 -> 184 ;
185 [label="age <= 17.5\nentropy = 1.0\nsamples = 4\nvalue = [2, 2]", fillcolor="#ffffff"] ;
184 -> 185 ;
186 [label="entropy = 1.0\nsamples = 2\nvalue = [1, 1]", fillcolor="#ffffff"] ;
185 -> 186 ;
187 [label="entropy = 1.0\nsamples = 2\nvalue = [1, 1]", fillcolor="#ffffff"] ;
185 -> 187 ;
188 [label="entropy = 0.0\nsamples = 1\nvalue = [1, 0]", fillcolor="#e58139"] ;
184 -> 188 ;
189 [label="class <= 1.5\nentropy = 0.414\nsamples = 12\nvalue = [11, 1]", fillcolor="#e78c4b"] ;
181 -> 189 ;
190 [label="age <= 17.5\nentropy = 0.918\nsamples = 3\nvalue = [2, 1]", fillcolor="#f2c09c"] ;
189 -> 190 ;
191 [label="entropy = 0.0\nsamples = 1\nvalue = [1, 0]", fillcolor="#e58139"] ;
190 -> 191 ;
192 [label="entropy = 1.0\nsamples = 2\nvalue = [1, 1]", fillcolor="#ffffff"] ;
190 -> 192 ;
193 [label="entropy = 0.0\nsamples = 9\nvalue = [9, 0]", fillcolor="#e58139"] ;
189 -> 193 ;
194 [label="fare <= 8.081\nentropy = 0.384\nsamples = 40\nvalue = [37, 3]", fillcolor="#e78b49"] ;
180 -> 194 ;
195 [label="entropy = 0.0\nsamples = 22\nvalue = [22, 0]", fillcolor="#e58139"] ;
194 -> 195 ;
196 [label="fare <= 8.388\nentropy = 0.65\nsamples = 18\nvalue = [15, 3]", fillcolor="#ea9a61"] ;
194 -> 196 ;
197 [label="entropy = 0.0\nsamples = 1\nvalue = [0, 1]", fillcolor="#399de5"] ;
196 -> 197 ;
198 [label="age <= 26.5\nentropy = 0.523\nsamples = 17\nvalue = [15, 2]", fillcolor="#e89253"] ;
196 -> 198 ;
199 [label="entropy = 0.0\nsamples = 7\nvalue = [7, 0]", fillcolor="#e58139"] ;
198 -> 199 ;
200 [label="age <= 27.5\nentropy = 0.722\nsamples = 10\nvalue = [8, 2]", fillcolor="#eca06a"] ;
198 -> 200 ;
201 [label="entropy = 0.0\nsamples = 1\nvalue = [0, 1]", fillcolor="#399de5"] ;
200 -> 201 ;
202 [label="age <= 28.5\nentropy = 0.503\nsamples = 9\nvalue = [8, 1]", fillcolor="#e89152"] ;
200 -> 202 ;
203 [label="entropy = 0.0\nsamples = 5\nvalue = [5, 0]", fillcolor="#e58139"] ;
202 -> 203 ;
204 [label="pclass <= 2.5\nentropy = 0.811\nsamples = 4\nvalue = [3, 1]", fillcolor="#eeab7b"] ;
202 -> 204 ;
205 [label="entropy = 0.0\nsamples = 2\nvalue = [2, 0]", fillcolor="#e58139"] ;
204 -> 205 ;
206 [label="fare <= 9.492\nentropy = 1.0\nsamples = 2\nvalue = [1, 1]", fillcolor="#ffffff"] ;
204 -> 206 ;
207 [label="entropy = 0.0\nsamples = 1\nvalue = [1, 0]", fillcolor="#e58139"] ;
206 -> 207 ;
208 [label="entropy = 0.0\nsamples = 1\nvalue = [0, 1]", fillcolor="#399de5"] ;
206 -> 208 ;
209 [label="sibsp <= 1.5\nentropy = 0.254\nsamples = 47\nvalue = [45, 2]", fillcolor="#e68742"] ;
179 -> 209 ;
210 [label="fare <= 13.25\nentropy = 0.156\nsamples = 44\nvalue = [43, 1]", fillcolor="#e6843e"] ;
209 -> 210 ;
211 [label="age <= 27.5\nentropy = 0.337\nsamples = 16\nvalue = [15, 1]", fillcolor="#e78946"] ;
210 -> 211 ;
212 [label="entropy = 0.0\nsamples = 13\nvalue = [13, 0]", fillcolor="#e58139"] ;
211 -> 212 ;
213 [label="age <= 29.0\nentropy = 0.918\nsamples = 3\nvalue = [2, 1]", fillcolor="#f2c09c"] ;
211 -> 213 ;
214 [label="entropy = 0.0\nsamples = 1\nvalue = [0, 1]", fillcolor="#399de5"] ;
213 -> 214 ;
215 [label="entropy = 0.0\nsamples = 2\nvalue = [2, 0]", fillcolor="#e58139"] ;
213 -> 215 ;
216 [label="entropy = 0.0\nsamples = 28\nvalue = [28, 0]", fillcolor="#e58139"] ;
210 -> 216 ;
217 [label="fare <= 23.7\nentropy = 0.918\nsamples = 3\nvalue = [2, 1]", fillcolor="#f2c09c"] ;
209 -> 217 ;
218 [label="entropy = 0.0\nsamples = 1\nvalue = [0, 1]", fillcolor="#399de5"] ;
217 -> 218 ;
219 [label="entropy = 0.0\nsamples = 2\nvalue = [2, 0]", fillcolor="#e58139"] ;
217 -> 219 ;
220 [label="fare <= 7.815\nentropy = 0.94\nsamples = 14\nvalue = [9, 5]", fillcolor="#f3c7a7"] ;
112 -> 220 ;
221 [label="entropy = 0.0\nsamples = 3\nvalue = [3, 0]", fillcolor="#e58139"] ;
220 -> 221 ;
222 [label="fare <= 7.875\nentropy = 0.994\nsamples = 11\nvalue = [6, 5]", fillcolor="#fbeade"] ;
220 -> 222 ;
223 [label="entropy = 0.0\nsamples = 1\nvalue = [0, 1]", fillcolor="#399de5"] ;
222 -> 223 ;
224 [label="parch <= 0.5\nentropy = 0.971\nsamples = 10\nvalue = [6, 4]", fillcolor="#f6d5bd"] ;
222 -> 224 ;
225 [label="pclass <= 2.5\nentropy = 0.991\nsamples = 9\nvalue = [5, 4]", fillcolor="#fae6d7"] ;
224 -> 225 ;
226 [label="entropy = 0.0\nsamples = 1\nvalue = [0, 1]", fillcolor="#399de5"] ;
225 -> 226 ;
227 [label="fare <= 8.206\nentropy = 0.954\nsamples = 8\nvalue = [5, 3]", fillcolor="#f5cdb0"] ;
225 -> 227 ;
228 [label="age <= 31.5\nentropy = 1.0\nsamples = 6\nvalue = [3, 3]", fillcolor="#ffffff"] ;
227 -> 228 ;
229 [label="entropy = 0.0\nsamples = 1\nvalue = [0, 1]", fillcolor="#399de5"] ;
228 -> 229 ;
230 [label="fare <= 7.988\nentropy = 0.971\nsamples = 5\nvalue = [3, 2]", fillcolor="#f6d5bd"] ;
228 -> 230 ;
231 [label="fare <= 7.91\nentropy = 0.811\nsamples = 4\nvalue = [3, 1]", fillcolor="#eeab7b"] ;
230 -> 231 ;
232 [label="entropy = 0.0\nsamples = 1\nvalue = [1, 0]", fillcolor="#e58139"] ;
231 -> 232 ;
233 [label="entropy = 0.918\nsamples = 3\nvalue = [2, 1]", fillcolor="#f2c09c"] ;
231 -> 233 ;
234 [label="entropy = 0.0\nsamples = 1\nvalue = [0, 1]", fillcolor="#399de5"] ;
230 -> 234 ;
235 [label="entropy = 0.0\nsamples = 2\nvalue = [2, 0]", fillcolor="#e58139"] ;
227 -> 235 ;
236 [label="entropy = 0.0\nsamples = 1\nvalue = [1, 0]", fillcolor="#e58139"] ;
224 -> 236 ;
237 [label="fare <= 7.91\nentropy = 0.312\nsamples = 89\nvalue = [84, 5]", fillcolor="#e78845"] ;
111 -> 237 ;
238 [label="entropy = 0.0\nsamples = 30\nvalue = [30, 0]", fillcolor="#e58139"] ;
237 -> 238 ;
239 [label="fare <= 13.25\nentropy = 0.419\nsamples = 59\nvalue = [54, 5]", fillcolor="#e78d4b"] ;
237 -> 239 ;
240 [label="fare <= 7.988\nentropy = 0.592\nsamples = 35\nvalue = [30, 5]", fillcolor="#e9965a"] ;
239 -> 240 ;
241 [label="alone <= 0.5\nentropy = 1.0\nsamples = 4\nvalue = [2, 2]", fillcolor="#ffffff"] ;
240 -> 241 ;
242 [label="entropy = 0.0\nsamples = 1\nvalue = [1, 0]", fillcolor="#e58139"] ;
241 -> 242 ;
243 [label="age <= 41.5\nentropy = 0.918\nsamples = 3\nvalue = [1, 2]", fillcolor="#9ccef2"] ;
241 -> 243 ;
244 [label="entropy = 1.0\nsamples = 2\nvalue = [1, 1]", fillcolor="#ffffff"] ;
243 -> 244 ;
245 [label="entropy = 0.0\nsamples = 1\nvalue = [0, 1]", fillcolor="#399de5"] ;
243 -> 245 ;
246 [label="pclass <= 2.5\nentropy = 0.459\nsamples = 31\nvalue = [28, 3]", fillcolor="#e88e4e"] ;
240 -> 246 ;
247 [label="age <= 59.5\nentropy = 0.696\nsamples = 16\nvalue = [13, 3]", fillcolor="#eb9e67"] ;
246 -> 247 ;
248 [label="age <= 45.0\nentropy = 0.592\nsamples = 14\nvalue = [12, 2]", fillcolor="#e9965a"] ;
247 -> 248 ;
249 [label="fare <= 12.637\nentropy = 0.764\nsamples = 9\nvalue = [7, 2]", fillcolor="#eca572"] ;
248 -> 249 ;
250 [label="entropy = 0.0\nsamples = 3\nvalue = [3, 0]", fillcolor="#e58139"] ;
249 -> 250 ;
251 [label="age <= 40.5\nentropy = 0.918\nsamples = 6\nvalue = [4, 2]", fillcolor="#f2c09c"] ;
249 -> 251 ;
252 [label="age <= 36.5\nentropy = 0.811\nsamples = 4\nvalue = [3, 1]", fillcolor="#eeab7b"] ;
251 -> 252 ;
253 [label="entropy = 0.918\nsamples = 3\nvalue = [2, 1]", fillcolor="#f2c09c"] ;
252 -> 253 ;
254 [label="entropy = 0.0\nsamples = 1\nvalue = [1, 0]", fillcolor="#e58139"] ;
252 -> 254 ;
255 [label="entropy = 1.0\nsamples = 2\nvalue = [1, 1]", fillcolor="#ffffff"] ;
251 -> 255 ;
256 [label="entropy = 0.0\nsamples = 5\nvalue = [5, 0]", fillcolor="#e58139"] ;
248 -> 256 ;
257 [label="age <= 66.0\nentropy = 1.0\nsamples = 2\nvalue = [1, 1]", fillcolor="#ffffff"] ;
247 -> 257 ;
258 [label="entropy = 0.0\nsamples = 1\nvalue = [0, 1]", fillcolor="#399de5"] ;
257 -> 258 ;
259 [label="entropy = 0.0\nsamples = 1\nvalue = [1, 0]", fillcolor="#e58139"] ;
257 -> 259 ;
260 [label="entropy = 0.0\nsamples = 15\nvalue = [15, 0]", fillcolor="#e58139"] ;
246 -> 260 ;
261 [label="entropy = 0.0\nsamples = 24\nvalue = [24, 0]", fillcolor="#e58139"] ;
239 -> 261 ;
262 [label="fare <= 26.419\nentropy = 0.902\nsamples = 107\nvalue = [73, 34]", fillcolor="#f1bc95"] ;
110 -> 262 ;
263 [label="entropy = 0.0\nsamples = 2\nvalue = [0, 2]", fillcolor="#399de5"] ;
262 -> 263 ;
264 [label="fare <= 387.665\nentropy = 0.887\nsamples = 105\nvalue = [73, 32]", fillcolor="#f0b890"] ;
262 -> 264 ;
265 [label="fare <= 134.642\nentropy = 0.87\nsamples = 103\nvalue = [73, 30]", fillcolor="#f0b58a"] ;
264 -> 265 ;
266 [label="fare <= 115.442\nentropy = 0.896\nsamples = 96\nvalue = [66, 30]", fillcolor="#f1ba93"] ;
265 -> 266 ;
267 [label="sibsp <= 1.5\nentropy = 0.879\nsamples = 94\nvalue = [66, 28]", fillcolor="#f0b68d"] ;
266 -> 267 ;
268 [label="fare <= 52.277\nentropy = 0.906\nsamples = 87\nvalue = [59, 28]", fillcolor="#f1bd97"] ;
267 -> 268 ;
269 [label="fare <= 36.125\nentropy = 0.804\nsamples = 53\nvalue = [40, 13]", fillcolor="#edaa79"] ;
268 -> 269 ;
270 [label="alone <= 0.5\nentropy = 0.918\nsamples = 39\nvalue = [26, 13]", fillcolor="#f2c09c"] ;
269 -> 270 ;
271 [label="entropy = 0.0\nsamples = 7\nvalue = [7, 0]", fillcolor="#e58139"] ;
270 -> 271 ;
272 [label="age <= 57.0\nentropy = 0.974\nsamples = 32\nvalue = [19, 13]", fillcolor="#f7d7c0"] ;
270 -> 272 ;
273 [label="age <= 27.5\nentropy = 0.999\nsamples = 25\nvalue = [13, 12]", fillcolor="#fdf5f0"] ;
272 -> 273 ;
274 [label="entropy = 0.0\nsamples = 1\nvalue = [0, 1]", fillcolor="#399de5"] ;
273 -> 274 ;
275 [label="age <= 47.5\nentropy = 0.995\nsamples = 24\nvalue = [13, 11]", fillcolor="#fbece1"] ;
273 -> 275 ;
276 [label="age <= 45.25\nentropy = 0.964\nsamples = 18\nvalue = [11, 7]", fillcolor="#f6d1b7"] ;
275 -> 276 ;
277 [label="fare <= 28.725\nentropy = 0.989\nsamples = 16\nvalue = [9, 7]", fillcolor="#f9e3d3"] ;
276 -> 277 ;
278 [label="embark_town <= 1.0\nentropy = 0.863\nsamples = 7\nvalue = [5, 2]", fillcolor="#efb388"] ;
277 -> 278 ;
279 [label="entropy = 0.0\nsamples = 3\nvalue = [3, 0]", fillcolor="#e58139"] ;
278 -> 279 ;
280 [label="age <= 36.5\nentropy = 1.0\nsamples = 4\nvalue = [2, 2]", fillcolor="#ffffff"] ;
278 -> 280 ;
281 [label="entropy = 1.0\nsamples = 2\nvalue = [1, 1]", fillcolor="#ffffff"] ;
280 -> 281 ;
282 [label="entropy = 1.0\nsamples = 2\nvalue = [1, 1]", fillcolor="#ffffff"] ;
280 -> 282 ;
283 [label="fare <= 30.75\nentropy = 0.991\nsamples = 9\nvalue = [4, 5]", fillcolor="#d7ebfa"] ;
277 -> 283 ;
284 [label="age <= 28.5\nentropy = 0.722\nsamples = 5\nvalue = [1, 4]", fillcolor="#6ab6ec"] ;
283 -> 284 ;
285 [label="entropy = 0.0\nsamples = 3\nvalue = [0, 3]", fillcolor="#399de5"] ;
284 -> 285 ;
286 [label="age <= 30.5\nentropy = 1.0\nsamples = 2\nvalue = [1, 1]", fillcolor="#ffffff"] ;
284 -> 286 ;
287 [label="entropy = 0.0\nsamples = 1\nvalue = [1, 0]", fillcolor="#e58139"] ;
286 -> 287 ;
288 [label="entropy = 0.0\nsamples = 1\nvalue = [0, 1]", fillcolor="#399de5"] ;
286 -> 288 ;
289 [label="fare <= 35.25\nentropy = 0.811\nsamples = 4\nvalue = [3, 1]", fillcolor="#eeab7b"] ;
283 -> 289 ;
290 [label="entropy = 0.0\nsamples = 2\nvalue = [2, 0]", fillcolor="#e58139"] ;
289 -> 290 ;
291 [label="age <= 36.5\nentropy = 1.0\nsamples = 2\nvalue = [1, 1]", fillcolor="#ffffff"] ;
289 -> 291 ;
292 [label="entropy = 0.0\nsamples = 1\nvalue = [0, 1]", fillcolor="#399de5"] ;
291 -> 292 ;
293 [label="entropy = 0.0\nsamples = 1\nvalue = [1, 0]", fillcolor="#e58139"] ;
291 -> 293 ;
294 [label="entropy = 0.0\nsamples = 2\nvalue = [2, 0]", fillcolor="#e58139"] ;
276 -> 294 ;
295 [label="age <= 53.5\nentropy = 0.918\nsamples = 6\nvalue = [2, 4]", fillcolor="#9ccef2"] ;
275 -> 295 ;
296 [label="entropy = 0.0\nsamples = 3\nvalue = [0, 3]", fillcolor="#399de5"] ;
295 -> 296 ;
297 [label="fare <= 33.0\nentropy = 0.918\nsamples = 3\nvalue = [2, 1]", fillcolor="#f2c09c"] ;
295 -> 297 ;
298 [label="entropy = 0.0\nsamples = 2\nvalue = [2, 0]", fillcolor="#e58139"] ;
297 -> 298 ;
299 [label="entropy = 0.0\nsamples = 1\nvalue = [0, 1]", fillcolor="#399de5"] ;
297 -> 299 ;
300 [label="age <= 72.5\nentropy = 0.592\nsamples = 7\nvalue = [6, 1]", fillcolor="#e9965a"] ;
272 -> 300 ;
301 [label="entropy = 0.0\nsamples = 6\nvalue = [6, 0]", fillcolor="#e58139"] ;
300 -> 301 ;
302 [label="entropy = 0.0\nsamples = 1\nvalue = [0, 1]", fillcolor="#399de5"] ;
300 -> 302 ;
303 [label="entropy = 0.0\nsamples = 14\nvalue = [14, 0]", fillcolor="#e58139"] ;
269 -> 303 ;
304 [label="age <= 41.5\nentropy = 0.99\nsamples = 34\nvalue = [19, 15]", fillcolor="#fae4d5"] ;
268 -> 304 ;
305 [label="age <= 23.0\nentropy = 0.985\nsamples = 21\nvalue = [9, 12]", fillcolor="#cee6f8"] ;
304 -> 305 ;
306 [label="fare <= 109.892\nentropy = 0.722\nsamples = 5\nvalue = [4, 1]", fillcolor="#eca06a"] ;
305 -> 306 ;
307 [label="entropy = 0.0\nsamples = 4\nvalue = [4, 0]", fillcolor="#e58139"] ;
306 -> 307 ;
308 [label="entropy = 0.0\nsamples = 1\nvalue = [0, 1]", fillcolor="#399de5"] ;
306 -> 308 ;
309 [label="age <= 27.5\nentropy = 0.896\nsamples = 16\nvalue = [5, 11]", fillcolor="#93caf1"] ;
305 -> 309 ;
310 [label="entropy = 0.0\nsamples = 5\nvalue = [0, 5]", fillcolor="#399de5"] ;
309 -> 310 ;
311 [label="age <= 30.0\nentropy = 0.994\nsamples = 11\nvalue = [5, 6]", fillcolor="#deeffb"] ;
309 -> 311 ;
312 [label="sibsp <= 0.5\nentropy = 0.722\nsamples = 5\nvalue = [4, 1]", fillcolor="#eca06a"] ;
311 -> 312 ;
313 [label="entropy = 0.918\nsamples = 3\nvalue = [2, 1]", fillcolor="#f2c09c"] ;
312 -> 313 ;
314 [label="entropy = 0.0\nsamples = 2\nvalue = [2, 0]", fillcolor="#e58139"] ;
312 -> 314 ;
315 [label="fare <= 67.925\nentropy = 0.65\nsamples = 6\nvalue = [1, 5]", fillcolor="#61b1ea"] ;
311 -> 315 ;
316 [label="entropy = 0.0\nsamples = 4\nvalue = [0, 4]", fillcolor="#399de5"] ;
315 -> 316 ;
317 [label="age <= 37.0\nentropy = 1.0\nsamples = 2\nvalue = [1, 1]", fillcolor="#ffffff"] ;
315 -> 317 ;
318 [label="entropy = 0.0\nsamples = 1\nvalue = [1, 0]", fillcolor="#e58139"] ;
317 -> 318 ;
319 [label="entropy = 0.0\nsamples = 1\nvalue = [0, 1]", fillcolor="#399de5"] ;
317 -> 319 ;
320 [label="embark_town <= 1.0\nentropy = 0.779\nsamples = 13\nvalue = [10, 3]", fillcolor="#eda774"] ;
304 -> 320 ;
321 [label="fare <= 97.765\nentropy = 0.985\nsamples = 7\nvalue = [4, 3]", fillcolor="#f8e0ce"] ;
320 -> 321 ;
322 [label="sibsp <= 0.5\nentropy = 0.971\nsamples = 5\nvalue = [2, 3]", fillcolor="#bddef6"] ;
321 -> 322 ;
323 [label="entropy = 0.0\nsamples = 2\nvalue = [2, 0]", fillcolor="#e58139"] ;
322 -> 323 ;
324 [label="entropy = 0.0\nsamples = 3\nvalue = [0, 3]", fillcolor="#399de5"] ;
322 -> 324 ;
325 [label="entropy = 0.0\nsamples = 2\nvalue = [2, 0]", fillcolor="#e58139"] ;
321 -> 325 ;
326 [label="entropy = 0.0\nsamples = 6\nvalue = [6, 0]", fillcolor="#e58139"] ;
320 -> 326 ;
327 [label="entropy = 0.0\nsamples = 7\nvalue = [7, 0]", fillcolor="#e58139"] ;
267 -> 327 ;
328 [label="entropy = 0.0\nsamples = 2\nvalue = [0, 2]", fillcolor="#399de5"] ;
266 -> 328 ;
329 [label="entropy = 0.0\nsamples = 7\nvalue = [7, 0]", fillcolor="#e58139"] ;
265 -> 329 ;
330 [label="entropy = 0.0\nsamples = 2\nvalue = [0, 2]", fillcolor="#399de5"] ;
264 -> 330 ;
}